<?xml version="1.0"?>
<opencv_storage>
<cascade>
  <stageType>BOOST</stageType>
  <featureType>HAAR</featureType>
  <height>24</height>
  <width>24</width>
  <stageParams>
    <boostType>GAB</boostType>
    <minHitRate>9.9500000476837158e-01</minHitRate>
    <maxFalseAlarm>5.0000000000000000e-01</maxFalseAlarm>
    <weightTrimRate>9.4999998807907104e-01</weightTrimRate>
    <maxDepth>1</maxDepth>
    <maxWeakCount>100</maxWeakCount></stageParams>
  <featureParams>
    <maxCatCount>0</maxCatCount>
    <featSize>1</featSize>
    <mode>BASIC</mode></featureParams>
  <stageNum>15</stageNum>
  <stages>
    <!-- stage 0 -->
    <_>
      <maxWeakCount>2</maxWeakCount>
      <stageThreshold>-1.8245892226696014e-01</stageThreshold>
      <weakClassifiers>
        <_>
          <internalNodes>
            0 -1 1 -1.3620969839394093e-02</internalNodes>
          <leafValues>
            7.2727274894714355e-01 -9.7727274894714355e-01</leafValues></_>
        <_>
          <internalNodes>
            0 -1 34 1.7150226980447769e-02</internalNodes>
          <leafValues>
            -8.5194522142410278e-01 7.9481381177902222e-01</leafValues></_></weakClassifiers></_>
    <!-- stage 1 -->
    <_>
      <maxWeakCount>2</maxWeakCount>
      <stageThreshold>-7.4595175683498383e-02</stageThreshold>
      <weakClassifiers>
        <_>
          <internalNodes>
            0 -1 31 -5.5757813155651093e-02</internalNodes>
          <leafValues>
            6.7164176702499390e-01 -9.5402300357818604e-01</leafValues></_>
        <_>
          <internalNodes>
            0 -1 17 -4.9920707941055298e-02</internalNodes>
          <leafValues>
            8.8866847753524780e-01 -7.4623697996139526e-01</leafValues></_></weakClassifiers></_>
    <!-- stage 2 -->
    <_>
      <maxWeakCount>4</maxWeakCount>
      <stageThreshold>-3.3814504742622375e-01</stageThreshold>
      <weakClassifiers>
        <_>
          <internalNodes>
            0 -1 28 -1.5201596543192863e-02</internalNodes>
          <leafValues>
            6.7857140302658081e-01 -7.7551019191741943e-01</leafValues></_>
        <_>
          <internalNodes>
            0 -1 3 1.0501071810722351e-01</internalNodes>
          <leafValues>
            -7.6429241895675659e-01 6.9532787799835205e-01</leafValues></_>
        <_>
          <internalNodes>
            0 -1 5 -2.9227333143353462e-03</internalNodes>
          <leafValues>
            5.9166210889816284e-01 -8.3625876903533936e-01</leafValues></_>
        <_>
          <internalNodes>
            0 -1 8 -5.2054561674594879e-03</internalNodes>
          <leafValues>
            6.0999548435211182e-01 -8.0437225103378296e-01</leafValues></_></weakClassifiers></_>
    <!-- stage 3 -->
    <_>
      <maxWeakCount>3</maxWeakCount>
      <stageThreshold>-5.7577085494995117e-01</stageThreshold>
      <weakClassifiers>
        <_>
          <internalNodes>
            0 -1 10 -6.2777087092399597e-02</internalNodes>
          <leafValues>
            1. -5.4838711023330688e-01</leafValues></_>
        <_>
          <internalNodes>
            0 -1 18 -4.2389065027236938e-02</internalNodes>
          <leafValues>
            7.8839564323425293e-01 -5.2793282270431519e-01</leafValues></_>
        <_>
          <internalNodes>
            0 -1 32 -1.6548153944313526e-03</internalNodes>
          <leafValues>
            5.0869446992874146e-01 -8.1577938795089722e-01</leafValues></_></weakClassifiers></_>
    <!-- stage 4 -->
    <_>
      <maxWeakCount>2</maxWeakCount>
      <stageThreshold>-2.1241438388824463e-01</stageThreshold>
      <weakClassifiers>
        <_>
          <internalNodes>
            0 -1 33 3.3197805285453796e-02</internalNodes>
          <leafValues>
            -6.4814811944961548e-01 6.9565218687057495e-01</leafValues></_>
        <_>
          <internalNodes>
            0 -1 7 -8.7636336684226990e-02</internalNodes>
          <leafValues>
            4.7431451082229614e-01 -9.0806657075881958e-01</leafValues></_></weakClassifiers></_>
    <!-- stage 5 -->
    <_>
      <maxWeakCount>2</maxWeakCount>
      <stageThreshold>-2.4735623598098755e-01</stageThreshold>
      <weakClassifiers>
        <_>
          <internalNodes>
            0 -1 19 1.4258456230163574e-01</internalNodes>
          <leafValues>
            -6.8518519401550293e-01 7.8260868787765503e-01</leafValues></_>
        <_>
          <internalNodes>
            0 -1 13 1.1351726949214935e-02</internalNodes>
          <leafValues>
            4.3782895803451538e-01 -9.5130103826522827e-01</leafValues></_></weakClassifiers></_>
    <!-- stage 6 -->
    <_>
      <maxWeakCount>2</maxWeakCount>
      <stageThreshold>-3.8574117422103882e-01</stageThreshold>
      <weakClassifiers>
        <_>
          <internalNodes>
            0 -1 21 1.0591270029544830e-01</internalNodes>
          <leafValues>
            -7.7083331346511841e-01 6.2068963050842285e-01</leafValues></_>
        <_>
          <internalNodes>
            0 -1 27 -2.1211849525570869e-03</internalNodes>
          <leafValues>
            -1. 3.8509216904640198e-01</leafValues></_></weakClassifiers></_>
    <!-- stage 7 -->
    <_>
      <maxWeakCount>2</maxWeakCount>
      <stageThreshold>-1.3047879934310913e-01</stageThreshold>
      <weakClassifiers>
        <_>
          <internalNodes>
            0 -1 0 -1.8912099301815033e-02</internalNodes>
          <leafValues>
            1. -5.4838711023330688e-01</leafValues></_>
        <_>
          <internalNodes>
            0 -1 22 -1.3399659655988216e-03</internalNodes>
          <leafValues>
            -9.7669690847396851e-01 4.1790828108787537e-01</leafValues></_></weakClassifiers></_>
    <!-- stage 8 -->
    <_>
      <maxWeakCount>2</maxWeakCount>
      <stageThreshold>-2.2614088654518127e-01</stageThreshold>
      <weakClassifiers>
        <_>
          <internalNodes>
            0 -1 14 1.9177845679223537e-03</internalNodes>
          <leafValues>
            -6.3157892227172852e-01 8.5000002384185791e-01</leafValues></_>
        <_>
          <internalNodes>
            0 -1 9 -1.3311354443430901e-02</internalNodes>
          <leafValues>
            -1. 4.0543806552886963e-01</leafValues></_></weakClassifiers></_>
    <!-- stage 9 -->
    <_>
      <maxWeakCount>3</maxWeakCount>
      <stageThreshold>-5.0948685407638550e-01</stageThreshold>
      <weakClassifiers>
        <_>
          <internalNodes>
            0 -1 37 -1.5014862641692162e-02</internalNodes>
          <leafValues>
            1. -5.7377046346664429e-01</leafValues></_>
        <_>
          <internalNodes>
            0 -1 23 3.2691550441086292e-03</internalNodes>
          <leafValues>
            5.9509557485580444e-01 -7.9417401552200317e-01</leafValues></_>
        <_>
          <internalNodes>
            0 -1 36 2.3089747410267591e-03</internalNodes>
          <leafValues>
            -5.3081196546554565e-01 9.0971750020980835e-01</leafValues></_></weakClassifiers></_>
    <!-- stage 10 -->
    <_>
      <maxWeakCount>3</maxWeakCount>
      <stageThreshold>-7.2811192274093628e-01</stageThreshold>
      <weakClassifiers>
        <_>
          <internalNodes>
            0 -1 30 -3.6707706749439240e-02</internalNodes>
          <leafValues>
            6.6666668653488159e-01 -7.4000000953674316e-01</leafValues></_>
        <_>
          <internalNodes>
            0 -1 2 1.9136629998683929e-02</internalNodes>
          <leafValues>
            -5.9755283594131470e-01 8.3157598972320557e-01</leafValues></_>
        <_>
          <internalNodes>
            0 -1 29 2.2602476747124456e-05</internalNodes>
          <leafValues>
            -6.9820576906204224e-01 6.0944086313247681e-01</leafValues></_></weakClassifiers></_>
    <!-- stage 11 -->
    <_>
      <maxWeakCount>2</maxWeakCount>
      <stageThreshold>-1.1748211085796356e-01</stageThreshold>
      <weakClassifiers>
        <_>
          <internalNodes>
            0 -1 12 9.4207361340522766e-02</internalNodes>
          <leafValues>
            -7.1153843402862549e-01 7.2000002861022949e-01</leafValues></_>
        <_>
          <internalNodes>
            0 -1 4 -8.7148733437061310e-03</internalNodes>
          <leafValues>
            5.9405636787414551e-01 -8.0936133861541748e-01</leafValues></_></weakClassifiers></_>
    <!-- stage 12 -->
    <_>
      <maxWeakCount>3</maxWeakCount>
      <stageThreshold>-4.9672919511795044e-01</stageThreshold>
      <weakClassifiers>
        <_>
          <internalNodes>
            0 -1 20 -2.0263609476387501e-03</internalNodes>
          <leafValues>
            8.4615385532379150e-01 -6.1739128828048706e-01</leafValues></_>
        <_>
          <internalNodes>
            0 -1 16 -3.5415578633546829e-02</internalNodes>
          <leafValues>
            6.4571076631546021e-01 -6.1968463659286499e-01</leafValues></_>
        <_>
          <internalNodes>
            0 -1 11 2.3068641312420368e-03</internalNodes>
          <leafValues>
            -5.2504867315292358e-01 9.1078263521194458e-01</leafValues></_></weakClassifiers></_>
    <!-- stage 13 -->
    <_>
      <maxWeakCount>4</maxWeakCount>
      <stageThreshold>-3.2357889413833618e-01</stageThreshold>
      <weakClassifiers>
        <_>
          <internalNodes>
            0 -1 6 -9.1616921126842499e-03</internalNodes>
          <leafValues>
            6.8888890743255615e-01 -6.3302749395370483e-01</leafValues></_>
        <_>
          <internalNodes>
            0 -1 35 1.7766945529729128e-03</internalNodes>
          <leafValues>
            -5.4341161251068115e-01 6.9643741846084595e-01</leafValues></_>
        <_>
          <internalNodes>
            0 -1 24 -1.2509945918282028e-05</internalNodes>
          <leafValues>
            5.6767833232879639e-01 -8.0409175157546997e-01</leafValues></_>
        <_>
          <internalNodes>
            0 -1 25 -1.4122158754616976e-03</internalNodes>
          <leafValues>
            -9.3556070327758789e-01 4.1710293292999268e-01</leafValues></_></weakClassifiers></_>
    <!-- stage 14 -->
    <_>
      <maxWeakCount>2</maxWeakCount>
      <stageThreshold>-2.9313659667968750e-01</stageThreshold>
      <weakClassifiers>
        <_>
          <internalNodes>
            0 -1 26 4.6991081908345222e-03</internalNodes>
          <leafValues>
            2.5842696428298950e-01 -9.3846154212951660e-01</leafValues></_>
        <_>
          <internalNodes>
            0 -1 15 9.2163700610399246e-03</internalNodes>
          <leafValues>
            -5.5156356096267700e-01 8.0341792106628418e-01</leafValues></_></weakClassifiers></_></stages>
  <features>
    <_>
      <rects>
        <_>
          0 0 18 2 -1.</_>
        <_>
          0 1 18 1 2.</_></rects>
      <tilted>0</tilted></_>
    <_>
      <rects>
        <_>
          0 1 12 9 -1.</_>
        <_>
          0 4 12 3 3.</_></rects>
      <tilted>0</tilted></_>
    <_>
      <rects>
        <_>
          0 4 10 6 -1.</_>
        <_>
          0 4 5 3 2.</_>
        <_>
          5 7 5 3 2.</_></rects>
      <tilted>0</tilted></_>
    <_>
      <rects>
        <_>
          0 5 24 9 -1.</_>
        <_>
          0 8 24 3 3.</_></rects>
      <tilted>0</tilted></_>
    <_>
      <rects>
        <_>
          0 12 18 3 -1.</_>
        <_>
          9 12 9 3 2.</_></rects>
      <tilted>0</tilted></_>
    <_>
      <rects>
        <_>
          0 18 8 3 -1.</_>
        <_>
          4 18 4 3 2.</_></rects>
      <tilted>0</tilted></_>
    <_>
      <rects>
        <_>
          0 19 4 4 -1.</_>
        <_>
          2 19 2 4 2.</_></rects>
      <tilted>0</tilted></_>
    <_>
      <rects>
        <_>
          1 9 18 14 -1.</_>
        <_>
          1 16 18 7 2.</_></rects>
      <tilted>0</tilted></_>
    <_>
      <rects>
        <_>
          1 12 4 8 -1.</_>
        <_>
          1 16 4 4 2.</_></rects>
      <tilted>0</tilted></_>
    <_>
      <rects>
        <_>
          2 1 20 6 -1.</_>
        <_>
          2 1 10 3 2.</_>
        <_>
          12 4 10 3 2.</_></rects>
      <tilted>0</tilted></_>
    <_>
      <rects>
        <_>
          2 3 14 6 -1.</_>
        <_>
          2 5 14 2 3.</_></rects>
      <tilted>0</tilted></_>
    <_>
      <rects>
        <_>
          2 4 3 6 -1.</_>
        <_>
          3 4 1 6 3.</_></rects>
      <tilted>0</tilted></_>
    <_>
      <rects>
        <_>
          2 5 13 9 -1.</_>
        <_>
          2 8 13 3 3.</_></rects>
      <tilted>0</tilted></_>
    <_>
      <rects>
        <_>
          2 14 20 8 -1.</_>
        <_>
          2 14 10 4 2.</_>
        <_>
          12 18 10 4 2.</_></rects>
      <tilted>0</tilted></_>
    <_>
      <rects>
        <_>
          2 22 2 2 -1.</_>
        <_>
          2 23 2 1 2.</_></rects>
      <tilted>0</tilted></_>
    <_>
      <rects>
        <_>
          2 22 14 2 -1.</_>
        <_>
          2 23 14 1 2.</_></rects>
      <tilted>0</tilted></_>
    <_>
      <rects>
        <_>
          3 1 8 14 -1.</_>
        <_>
          7 1 4 14 2.</_></rects>
      <tilted>0</tilted></_>
    <_>
      <rects>
        <_>
          3 1 8 20 -1.</_>
        <_>
          7 1 4 20 2.</_></rects>
      <tilted>0</tilted></_>
    <_>
      <rects>
        <_>
          3 8 17 9 -1.</_>
        <_>
          3 11 17 3 3.</_></rects>
      <tilted>0</tilted></_>
    <_>
      <rects>
        <_>
          4 3 14 12 -1.</_>
        <_>
          4 7 14 4 3.</_></rects>
      <tilted>0</tilted></_>
    <_>
      <rects>
        <_>
          5 19 2 3 -1.</_>
        <_>
          5 20 2 1 3.</_></rects>
      <tilted>0</tilted></_>
    <_>
      <rects>
        <_>
          6 4 11 12 -1.</_>
        <_>
          6 8 11 4 3.</_></rects>
      <tilted>0</tilted></_>
    <_>
      <rects>
        <_>
          7 8 10 2 -1.</_>
        <_>
          7 8 5 1 2.</_>
        <_>
          12 9 5 1 2.</_></rects>
      <tilted>0</tilted></_>
    <_>
      <rects>
        <_>
          8 0 8 10 -1.</_>
        <_>
          8 0 4 5 2.</_>
        <_>
          12 5 4 5 2.</_></rects>
      <tilted>0</tilted></_>
    <_>
      <rects>
        <_>
          8 1 1 2 -1.</_>
        <_>
          8 2 1 1 2.</_></rects>
      <tilted>0</tilted></_>
    <_>
      <rects>
        <_>
          8 15 8 9 -1.</_>
        <_>
          12 15 4 9 2.</_></rects>
      <tilted>0</tilted></_>
    <_>
      <rects>
        <_>
          8 17 8 6 -1.</_>
        <_>
          12 17 4 6 2.</_></rects>
      <tilted>0</tilted></_>
    <_>
      <rects>
        <_>
          8 20 8 3 -1.</_>
        <_>
          12 20 4 3 2.</_></rects>
      <tilted>0</tilted></_>
    <_>
      <rects>
        <_>
          9 0 11 4 -1.</_>
        <_>
          9 2 11 2 2.</_></rects>
      <tilted>0</tilted></_>
    <_>
      <rects>
        <_>
          10 1 2 10 -1.</_>
        <_>
          10 1 1 5 2.</_>
        <_>
          11 6 1 5 2.</_></rects>
      <tilted>0</tilted></_>
    <_>
      <rects>
        <_>
          11 0 9 21 -1.</_>
        <_>
          14 0 3 21 3.</_></rects>
      <tilted>0</tilted></_>
    <_>
      <rects>
        <_>
          12 8 12 14 -1.</_>
        <_>
          12 15 12 7 2.</_></rects>
      <tilted>0</tilted></_>
    <_>
      <rects>
        <_>
          15 0 1 6 -1.</_>
        <_>
          15 3 1 3 2.</_></rects>
      <tilted>0</tilted></_>
    <_>
      <rects>
        <_>
          15 1 8 5 -1.</_>
        <_>
          19 1 4 5 2.</_></rects>
      <tilted>0</tilted></_>
    <_>
      <rects>
        <_>
          15 3 6 12 -1.</_>
        <_>
          18 3 3 12 2.</_></rects>
      <tilted>0</tilted></_>
    <_>
      <rects>
        <_>
          16 3 8 2 -1.</_>
        <_>
          16 3 4 1 2.</_>
        <_>
          20 4 4 1 2.</_></rects>
      <tilted>0</tilted></_>
    <_>
      <rects>
        <_>
          17 10 2 6 -1.</_>
        <_>
          17 10 1 3 2.</_>
        <_>
          18 13 1 3 2.</_></rects>
      <tilted>0</tilted></_>
    <_>
      <rects>
        <_>
          18 18 6 5 -1.</_>
        <_>
          20 18 2 5 3.</_></rects>
      <tilted>0</tilted></_></features></cascade>
</opencv_storage>
